svm_type c_svc
kernel_type rbf
gamma 0.0078125
nr_class 6
total_sv 30
rho 0.00571897 -0.173663 0.0299187 0.0173872 0.158433 -0.0711784 -0.0884236 0.0791633 -0.00360625 -0.0874091 0.0773273 0.144116 0.111053 0.167854 0.153772
label 0 1 2 3 4 5
nr_sv 5 5 5 5 5 5
SV
0.2861592581515673 1.85120077554093 2 2 0 0:-0.273145 1:-0.439825 2:-0.541725 3:-0.508334 4:-0.489373 5:-0.193445 6:-0.434097 7:-0.633475 8:-0.421995 9:-0.512713 10:-0.362165 11:-0.0289317 12:-0.52004 13:-0.652911 14:-0.773618 15:-0.56862 16:-0.537693 17:-0.124044 18:-0.112927 19:-0.0104175 20:0.275609 21:-0.123756 22:-0.117857 23:-0.197566 24:-0.389929 25:-0.485719 26:-0.73748 27:-0.825258 28:-0.986899 29:-0.783266 30:-0.514457 31:-0.667639 32:-0.335561 33:-0.230218 34:0.0709573 35:-0.219237 36:-0.39795 37:-0.600784 38:-0.386396 39:-0.680989 40:-0.814984 41:-0.782378 42:-0.806302 43:-0.949828 44:-0.859778 45:-0.755262 46:-0.676705 47:-0.225179 48:-0.37119 49:-0.666711 50:-0.715411 51:-0.65361 52:-0.890773 53:-0.843447 54:-0.801292 55:-0.766604 56:-0.844588 57:-0.830238 58:-0.892178 59:-0.570383 60:-0.147155 61:-0.393451 62:-0.490258 63:-0.375718 64:-0.501539 65:-0.863216 66:-0.813223 67:-0.859101 68:-0.823137 69:-0.923487 70:-0.891022 71:-0.985409 72:-0.993585 73:-0.561014 74:-0.466993 75:-0.305438 76:-0.33585 77:-0.669739 78:-0.31433 79:-0.682427 80:-0.589314 81:-0.721681 82:-0.783002 83:-0.852595 84:-0.915931 85:-1 86:-0.813513 87:-0.670918 88:-0.649688 89:-0.355184 90:0.116202 91:-0.513574 92:-0.699316 93:-0.597459 94:-0.496014 95:-0.473802 96:-0.766651 97:-0.747761 98:-0.830094 99:-0.924895 100:-0.838248 101:-0.157584 102:-0.494799 103:-0.356781 104:-0.716293 105:-0.508264 106:-0.644137 107:-0.493426 108:-0.621165 109:-0.33785 110:-0.284642 111:-0.494999 112:-0.400742 113:-0.320957 114:-0.0609961 115:0.0141796 116:-0.292296 117:-0.770785 118:-0.451791 119:-0.877727 120:-0.9227 121:-0.522447 122:-0.564397 123:-0.595322 124:-0.521399 125:-0.750813 126:-0.527266 127:-0.563666 128:-0.252764 129:-0.504057 
1.14980471106332 1.164297375649114 1.811482426166817 0.1983006990569535 1.941248634479273 0:-0.135053 1:-0.0910074 2:0.0527108 3:-0.335228 4:-0.472017 5:-0.202419 6:0.224622 7:-0.153938 8:0.221121 9:-0.202978 10:0.148545 11:0.498974 12:0.323365 13:-0.650238 14:-0.573906 15:-0.296931 16:-0.438156 17:-0.245799 18:-0.188562 19:0.0540094 20:0.370614 21:-0.0174223 22:-0.560417 23:-0.48399 24:-0.337043 25:-0.18277 26:-0.592461 27:-0.826862 28:-0.924864 29:-0.667205 30:-0.523485 31:-0.347259 32:-0.231517 33:-0.53984 34:-0.595074 35:-0.317883 36:-0.326445 37:-0.72565 38:-0.545666 39:-0.62634 40:-0.761261 41:-0.764949 42:-0.773224 43:-0.908689 44:-0.68464 45:-0.721574 46:-0.634461 47:-0.63406 48:-0.325211 49:-0.577594 50:-0.572784 51:-0.664916 52:-0.704118 53:-0.731673 54:-0.684753 55:-0.721236 56:-0.54217 57:-0.807169 58:-0.90767 59:-0.759618 60:-0.591869 61:-0.0444141 62:-0.0564446 63:-0.35548 64:-0.50035 65:-0.75315 66:-0.832877 67:-0.825998 68:-0.780154 69:-0.827521 70:-0.884142 71:-0.889905 72:-0.832425 73:-0.676833 74:-0.397463 75:0.0952493 76:-0.0431602 77:-0.253222 78:-0.364794 79:-0.612346 80:-0.532058 81:-0.644646 82:-0.619707 83:-0.616039 84:-0.779573 85:-0.830825 86:-0.695468 87:-0.31064 88:-0.514502 89:-0.435298 90:-0.352485 91:-0.494078 92:-0.595628 93:-0.191374 94:-0.425028 95:-0.335555 96:-0.604082 97:-0.651277 98:-0.680841 99:-0.793188 100:-0.663593 101:-0.446255 102:-0.474718 103:-0.657536 104:-0.397341 105:-0.54081 106:-0.461401 107:-0.474344 108:-0.488668 109:-0.422735 110:-0.467349 111:-0.338865 112:-0.408953 113:-0.363984 114:-0.208954 115:0.0821949 116:-0.354897 117:-0.656245 118:-0.722977 119:-0.88167 120:-0.83888 121:0.195235 122:-0.319698 123:-0.300384 124:-0.419532 125:-0.600792 126:-0.618245 127:-0.710989 128:-0.4369 129:-0.676308 
2 2 2 2 0 0:-0.82284 1:-0.900183 2:-0.885338 3:-0.891629 4:-0.95221 5:-1 6:-0.927037 7:-0.911555 8:-0.907651 9:-0.776519 10:-0.648224 11:-0.701377 12:-0.656209 13:-0.961604 14:-1 15:-0.961189 16:-1 17:-0.919477 18:-1 19:-0.218401 20:-0.681188 21:-0.777679 22:-0.992595 23:-0.830281 24:-0.674238 25:-0.597763 26:-0.808164 27:-0.995559 28:-0.940268 29:-0.747871 30:-0.598493 31:-0.609754 32:0.0732123 33:-0.443636 34:-0.509366 35:-0.514207 36:-0.520211 37:-0.64229 38:-0.74835 39:-0.736057 40:-0.836534 41:-0.828998 42:-0.854033 43:-0.904242 44:-0.805335 45:-0.736803 46:-0.690605 47:-0.644822 48:-0.411451 49:-0.600015 50:-0.611557 51:-0.613836 52:-0.919856 53:-0.704545 54:-0.724256 55:-0.654806 56:-0.659336 57:-0.872508 58:-0.946909 59:-0.668689 60:-0.736698 61:-0.288409 62:-0.248081 63:-0.517772 64:-0.545493 65:-0.932365 66:-0.84322 67:-0.873189 68:-0.791271 69:-0.915559 70:-0.942588 71:-0.927675 72:-0.859408 73:-0.617635 74:-0.391593 75:0.0265238 76:-0.132928 77:-0.244636 78:-0.665705 79:-0.791603 80:-0.757199 81:-0.692041 82:-0.72652 83:-0.787932 84:-0.892448 85:-0.781088 86:-0.852661 87:-0.100685 88:-0.244552 89:-0.154379 90:-0.192437 91:-0.809972 92:-0.878605 93:-0.442585 94:-0.703927 95:-0.631715 96:-0.759613 97:-0.709623 98:-0.828664 99:-0.70821 100:-0.718772 101:-0.486383 102:-0.295823 103:-0.446456 104:-0.611937 105:-0.497707 106:-0.436499 107:-0.459656 108:-0.435316 109:-0.609598 110:-0.485686 111:-0.589443 112:-0.476958 113:-0.529988 114:-0.338382 115:0.0312197 116:-0.340891 117:-0.124779 118:-0.147365 119:-0.740068 120:-0.734058 121:0.259918 122:-0.484531 123:-0.548107 124:-0.63186 125:-0.490864 126:-0.599017 127:-0.563332 128:-0.514639 129:-0.609029 
0 1.659324349839201 2 2 0 0:-0.647068 1:-0.694966 2:-0.791686 3:-0.691167 4:-0.68031 5:-0.613748 6:-0.614834 7:-0.752313 8:-0.723937 9:-0.782012 10:-0.437039 11:-0.662839 12:-0.722405 13:-0.768305 14:-0.747883 15:-0.792596 16:-0.866151 17:-0.600703 18:-0.804282 19:-0.146459 20:-0.302071 21:-0.494542 22:-0.911677 23:-0.512646 24:-0.593103 25:-0.688671 26:-0.749532 27:-0.935591 28:-0.910361 29:-0.681588 30:-0.441461 31:-0.500299 32:-0.078978 33:-0.424702 34:-0.549117 35:-0.503142 36:-0.36436 37:-0.757943 38:-0.793897 39:-0.704647 40:-0.802083 41:-0.806842 42:-0.805262 43:-0.888479 44:-0.739032 45:-0.65022 46:-0.620683 47:-0.657829 48:-0.311654 49:-0.471806 50:-0.678108 51:-0.757392 52:-0.910837 53:-0.855948 54:-0.856915 55:-0.801431 56:-0.75781 57:-0.971619 58:-0.980231 59:-0.741507 60:-0.708361 61:-0.292776 62:-0.363857 63:-0.458974 64:-0.5793 65:-1 66:-0.981086 67:-0.943797 68:-0.892158 69:-0.943879 70:-0.990905 71:-0.991802 72:-0.873918 73:-0.614932 74:-0.491053 75:0.0192498 76:-0.0750817 77:-0.224823 78:-0.675696 79:-0.739103 80:-0.795453 81:-0.810873 82:-0.762751 83:-0.826931 84:-0.8865 85:-0.85195 86:-0.733541 87:-0.337987 88:-0.369473 89:-0.201087 90:-0.230637 91:-0.855537 92:-0.883687 93:-0.342736 94:-0.70203 95:-0.568621 96:-0.699332 97:-0.781937 98:-0.877281 99:-0.806286 100:-0.685915 101:-0.438555 102:-0.388604 103:-0.37648 104:-0.809676 105:-0.662901 106:-0.453584 107:-0.597632 108:-0.578273 109:-0.57111 110:-0.541966 111:-0.604728 112:-0.491865 113:-0.380853 114:-0.134826 115:0.0570244 116:-0.262097 117:-0.221406 118:-0.261533 119:-0.677433 120:-0.779237 121:-0.00576932 122:-0.618459 123:-0.625915 124:-0.597038 125:-0.711422 126:-0.546436 127:-0.719935 128:-0.509567 129:-0.657515 
0 1.664072578243312 2 1.012480981390653 0.2636158616876107 0:-0.717192 1:-0.848089 2:-0.719818 3:-0.848305 4:-0.831319 5:-0.766291 6:-0.739647 7:-0.801487 8:-0.613054 9:-0.606808 10:-0.42069 11:-0.405433 12:-0.557999 13:-0.751419 14:-0.626487 15:-0.714582 16:-0.585509 17:-0.593182 18:-0.559678 19:0.480997 20:0.0766173 21:-0.203707 22:-0.703355 23:-0.442015 24:-0.0693004 25:-0.458629 26:-0.639835 27:-0.833815 28:-0.828423 29:-0.576617 30:-0.369895 31:-0.171883 32:0.276959 33:-0.140392 34:-0.280431 35:0.0353018 36:0.195661 37:-0.346318 38:-0.569773 39:-0.639873 40:-0.749894 41:-0.721502 42:-0.770046 43:-0.849142 44:-0.634321 45:-0.583228 46:-0.398488 47:-0.558534 48:-0.0426979 49:-0.311183 50:-0.478064 51:-0.45616 52:-0.912832 53:-0.799361 54:-0.846122 55:-0.84139 56:-0.794094 57:-0.986349 58:-0.918981 59:-0.742791 60:-0.734071 61:-0.318793 62:-0.336526 63:-0.442294 64:-0.492167 65:-0.924628 66:-0.865389 67:-0.876179 68:-0.841448 69:-0.954202 70:-1 71:-0.977256 72:-0.921628 73:-0.666634 74:-0.503753 75:-0.109093 76:-0.236423 77:-0.334352 78:-0.687963 79:-0.751954 80:-0.671506 81:-0.738581 82:-0.76271 83:-0.797306 84:-0.904035 85:-0.863346 86:-0.771716 87:-0.302382 88:-0.359918 89:-0.463515 90:-0.302409 91:-0.868231 92:-0.846487 93:-0.303572 94:-0.591801 95:-0.454071 96:-0.712766 97:-0.735741 98:-0.759193 99:-0.856105 100:-0.699101 101:-0.412427 102:-0.440469 103:-0.551105 104:-0.684591 105:-0.485252 106:-0.327483 107:-0.450085 108:-0.459583 109:-0.427242 110:-0.473652 111:-0.515586 112:-0.411931 113:-0.387472 114:-0.146404 115:0.225307 116:-0.325232 117:-0.114084 118:-0.303651 119:-0.606755 120:-0.563373 121:0.107941 122:-0.447534 123:-0.601508 124:-0.602127 125:-0.466416 126:-0.531148 127:-0.460534 128:-0.308013 129:-0.473749 
-0.4991643075247225 1.828926280648013 0 0 2 0:-0.496172 1:-0.560885 2:-0.607794 3:-0.591478 4:-0.499267 5:-0.478201 6:-0.277659 7:-0.68548 8:-0.600208 9:-0.633684 10:-0.271691 11:-0.311768 12:-0.213374 13:-0.407973 14:-0.700936 15:-0.453263 16:-0.259705 17:0.274976 18:-0.239974 19:0.560748 20:-0.543685 21:-0.654976 22:-0.911957 23:-0.520464 24:-0.119434 25:-0.334275 26:-0.205622 27:-0.159402 28:0.012154 29:0.531564 30:0.957115 31:0.701638 32:0.455659 33:-0.0732272 34:-0.360536 35:-0.114918 36:0.0696267 37:-0.558384 38:-0.625866 39:0.4494 40:0.801497 41:0.678389 42:0.474873 43:0.237125 44:0.293077 45:0.628394 46:-0.00184692 47:-0.132957 48:0.57511 49:0.218046 50:-0.30143 51:-0.460404 52:0.781672 53:0.516827 54:0.493543 55:0.446265 56:0.413051 57:0.0899587 58:0.108754 59:0.419188 60:0.25586 61:1 62:1 63:0.25051 64:0.075012 65:0.215522 66:0.2042 67:-0.041659 68:0.373011 69:0.402761 70:0.50984 71:0.286475 72:0.307948 73:0.32177 74:0.569858 75:0.642338 76:-0.125233 77:-0.155671 78:-0.291281 79:-0.334236 80:-0.0388964 81:0.0889142 82:0.329516 83:0.552079 84:-0.00748408 85:0.00824767 86:0.106788 87:0.358359 88:0.532507 89:0.158971 90:-0.199159 91:-0.665141 92:-0.691407 93:-0.608364 94:-0.42879 95:-0.432164 96:-0.442491 97:-0.368588 98:-0.295744 99:0.420288 100:0.308382 101:0.830882 102:0.126606 103:-0.286165 104:-0.677531 105:-0.762177 106:-0.719892 107:-0.625507 108:-0.805452 109:-0.797531 110:-0.686821 111:-0.621782 112:-0.458 113:-0.471172 114:-0.249448 115:0.220172 116:-0.315193 117:-0.466039 118:-0.610633 119:-0.64435 120:-0.754938 121:-0.813173 122:-0.910346 123:-0.766313 124:-0.845037 125:-0.752013 126:-0.742109 127:-0.688293 128:-0.486787 129:-0.597721 
-0 0 0 0.7621006240182391 0 0:-0.752335 1:-0.917922 2:-0.886141 3:-0.904836 4:-0.920896 5:-0.960227 6:-0.816753 7:-0.831711 8:-0.862261 9:-0.763068 10:-0.304153 11:-0.750824 12:-0.83088 13:-0.637404 14:-0.672934 15:-0.798121 16:-0.858676 17:-1 18:-0.937833 19:-0.55781 20:-0.5795 21:-0.869572 22:-0.856122 23:-0.508977 24:-0.636334 25:-0.579603 26:-0.150032 27:-0.14727 28:-0.0522161 29:0.0771122 30:0.176901 31:-0.349838 32:-0.496508 33:-0.393498 34:-0.543415 35:-0.60703 36:-0.696259 37:-0.7381 38:-0.59437 39:0.318545 40:0.711708 41:0.560731 42:0.689489 43:0.389017 44:0.440457 45:0.207644 46:-0.521666 47:-0.394407 48:-0.326308 49:-0.562372 50:-0.573368 51:-0.656004 52:1 53:0.691034 54:0.651052 55:0.559746 56:0.490689 57:0.318409 58:0.0392286 59:0.0500358 60:0.196016 61:0.132829 62:-0.021484 63:-0.293616 64:-0.455857 65:0.733279 66:0.539468 67:0.399142 68:0.601093 69:0.558403 70:0.469957 71:0.432785 72:0.326156 73:0.317392 74:0.234294 75:0.150223 76:-0.106755 77:-0.209904 78:-0.377861 79:-0.320951 80:0.0626826 81:0.209074 82:0.424791 83:0.6348 84:0.143905 85:-0.0474832 86:-0.112432 87:0.207128 88:0.200123 89:0.0206694 90:-0.300745 91:-0.915906 92:-0.947371 93:-0.828229 94:-0.636804 95:-0.405562 96:-0.535078 97:-0.463432 98:-0.14199 99:0.283238 100:0.0888909 101:0.405734 102:-0.288142 103:-0.464088 104:-0.952581 105:-0.990237 106:-0.918921 107:-0.919555 108:-0.879423 109:-0.900321 110:-0.868158 111:-0.70343 112:-0.722665 113:-0.813204 114:-0.756932 115:-0.302965 116:-0.551977 117:-0.6941 118:-0.921699 119:-0.872232 120:-0.96308 121:-0.866672 122:-0.863216 123:-0.816909 124:-0.942776 125:-0.953102 126:-0.922043 127:-0.883139 128:-0.887549 129:-0.885324 
-0.889062403110536 2 1.71651796620653 0.9138756146211225 0.2599914491434197 0:-0.651264 1:-0.887924 2:-0.8032 3:-0.923714 4:-0.900348 5:-0.921968 6:-0.931515 7:-0.919562 8:-0.961617 9:-0.880823 10:-0.763062 11:-0.66609 12:-0.751822 13:-0.563571 14:-0.666689 15:-0.455642 16:-0.743566 17:-0.397339 18:-0.443374 19:-0.399334 20:-0.498112 21:-0.631034 22:-0.8236 23:-0.398082 24:-0.243885 25:-0.633578 26:-0.277603 27:-0.295747 28:-0.129443 29:0.0816839 30:0.446515 31:-0.0364072 32:0.608796 33:0.575477 34:0.00776828 35:-0.268551 36:-0.487957 37:-0.399573 38:-0.692646 39:0.373954 40:0.722573 41:0.558202 42:0.464095 43:0.387548 44:0.375716 45:0.699802 46:0.0723138 47:0.257842 48:0.619487 49:0.0160165 50:-0.2466 51:-0.439081 52:0.17053 53:0.38 54:0.332894 55:0.121136 56:0.220095 57:-0.0158786 58:0.105784 59:0.258836 60:0.498337 61:0.698772 62:0.538463 63:0.794465 64:0.409243 65:0.412858 66:0.0362951 67:0.163586 68:0.276025 69:0.222355 70:0.288045 71:0.0820289 72:-0.120857 73:0.0959026 74:0.189439 75:0.270883 76:-0.00157892 77:0.170564 78:-0.419269 79:-0.367868 80:-0.0012956 81:0.162193 82:0.300856 83:0.43858 84:0.032386 85:0.0572668 86:-0.241139 87:0.0888648 88:0.533347 89:0.311144 90:-0.171057 91:-0.910643 92:-0.886766 93:-0.838909 94:-0.532013 95:-0.485039 96:-0.53777 97:-0.423449 98:-0.20228 99:0.419086 100:0.371686 101:0.903579 102:-0.0953346 103:-0.493048 104:-0.811137 105:-0.874984 106:-0.8303 107:-0.803932 108:-0.845408 109:-0.812549 110:-0.781582 111:-0.605278 112:-0.601697 113:-0.556702 114:-0.382225 115:-0.215352 116:-0.526048 117:-0.813849 118:-0.744757 119:-0.776025 120:-0.796419 121:-0.675541 122:-0.858343 123:-0.668959 124:-0.74358 125:-0.762409 126:-0.595511 127:-0.598855 128:-0.474144 129:-0.635474 
-2 2 2 2 0.2367968022506556 0:-0.877256 1:-0.99285 2:-0.947176 3:-0.962478 4:-1 5:-0.951257 6:-0.958413 7:-0.950091 8:-0.915678 9:-0.809506 10:-0.526777 11:-0.797335 12:-0.752087 13:-0.658424 14:-0.599013 15:-0.800867 16:-0.751311 17:-0.865673 18:-0.97955 19:-0.823483 20:-0.761834 21:-0.855375 22:-0.880324 23:-0.696228 24:-0.646819 25:-0.746921 26:-0.388307 27:-0.666486 28:-0.215466 29:-0.0699085 30:0.023307 31:-0.653505 32:-0.742278 33:-0.471113 34:-0.869224 35:-0.959081 36:-0.778668 37:-0.71394 38:-0.72615 39:0.270852 40:0.299111 41:0.0855627 42:0.0561744 43:0.0246219 44:0.22497 45:0.10092 46:-0.458917 47:-0.546253 48:-0.492606 49:-0.628628 50:-0.736639 51:-0.724784 52:0.523788 53:0.436551 54:0.228668 55:0.301768 56:0.0732944 57:0.0189827 58:-0.029466 59:-0.089384 60:-0.161717 61:-0.162191 62:-0.415015 63:-0.425038 64:-0.583025 65:0.469588 66:0.269232 67:0.347266 68:0.605985 69:0.150165 70:-0.123928 71:0.0807232 72:-0.0913097 73:0.0967098 74:0.0690258 75:0.0506411 76:-0.197097 77:-0.287258 78:-0.441561 79:-0.315581 80:0.226624 81:0.0381355 82:0.0725129 83:0.08196 84:-0.243016 85:-0.439248 86:-0.260296 87:-0.0672773 88:0.193556 89:-0.198204 90:-0.598403 91:-1 92:-1 93:-0.903403 94:-0.771236 95:-0.678279 96:-0.577114 97:-0.361641 98:-0.494235 99:0.0411186 100:0.0609066 101:-0.0350263 102:-0.350989 103:-0.626648 104:-0.998927 105:-1 106:-0.96882 107:-1 108:-0.966367 109:-0.990308 110:-0.91917 111:-0.802915 112:-0.706417 113:-0.834024 114:-0.701615 115:-0.41847 116:-0.493518 117:-0.93547 118:-0.83813 119:-0.903761 120:-0.923835 121:-1 122:-0.982939 123:-0.934893 124:-1 125:-0.986124 126:-0.918483 127:-0.913756 128:-1 129:-0.91041 
-0.04773725857962842 0 0 0 2 0:-0.648821 1:-0.684926 2:-0.706068 3:-0.724666 4:-0.575024 5:-0.674775 6:-0.52129 7:-0.66257 8:-0.635867 9:-0.586596 10:-0.439958 11:-0.147592 12:-0.29707 13:-0.439525 14:-0.374934 15:-0.313817 16:-0.13119 17:-0.209032 18:-0.489641 19:0.119836 20:-0.0787617 21:-0.432156 22:-0.451896 23:-0.0586977 24:0.324387 25:0.499391 26:0.150657 27:0.00458055 28:0.547442 29:1 30:1 31:1 32:1 33:0.948597 34:0.177557 35:0.238728 36:0.496229 37:0.308407 38:0.672422 39:0.507195 40:0.867774 41:1 42:1 43:0.812841 44:1 45:1 46:0.118083 47:0.500704 48:1 49:1 50:1 51:0.815947 52:0.96949 53:1 54:1 55:1 56:0.988833 57:1 58:1 59:1 60:0.619297 61:0.724945 62:0.393026 63:0.286779 64:0.442874 65:0.803345 66:0.756588 67:1 68:1 69:0.577873 70:1 71:1 72:1 73:1 74:1 75:0.949879 76:0.2709 77:0.126288 78:0.315214 79:0.603198 80:0.963809 81:0.402455 82:0.418313 83:0.583067 84:0.230808 85:-0.252771 86:-0.208104 87:0.415158 88:1 89:0.694086 90:0.713372 91:-0.591047 92:-0.520933 93:-0.441006 94:-0.0563433 95:0.114632 96:-0.421799 97:-0.0442268 98:0.275373 99:0.564909 100:0.402918 101:0.494841 102:0.173169 103:0.659259 104:-0.785802 105:-0.692511 106:-0.712395 107:-0.501542 108:-0.418006 109:-0.396572 110:-0.276641 111:-0.0826564 112:-0.0978562 113:-0.20648 114:0.138986 115:1 116:1 117:-0.353669 118:-0.663595 119:-0.610728 120:-0.464949 121:-0.320278 122:-0.0125546 123:-0.32988 124:-0.489604 125:-0.265647 126:-0.0602434 127:-0.132547 128:0.51958 129:-0.147222 
-2 -2 2 2 0 0:-0.792134 1:-0.885863 2:-0.852369 3:-0.80013 4:-0.98354 5:-0.802347 6:-0.894551 7:-0.881358 8:-0.90237 9:-0.709099 10:-0.615669 11:-0.785008 12:-0.569838 13:-1 14:-0.649672 15:-0.620367 16:-0.661652 17:-0.44314 18:-0.464953 19:-0.542835 20:-0.618027 21:-0.68777 22:-0.770074 23:-0.140873 24:-0.0904496 25:-0.489462 26:-0.155642 27:-0.151595 28:-0.456003 29:-0.440926 30:-0.470154 31:-0.23044 32:-0.481504 33:-0.480865 34:-0.509368 35:-0.753301 36:-0.276938 37:-0.389747 38:-0.423054 39:-0.455352 40:-0.372508 41:-0.374221 42:-0.479763 43:-0.602515 44:-0.494415 45:-0.323591 46:-0.343178 47:-0.378044 48:-0.705566 49:-0.519395 50:-0.491329 51:-0.52132 52:-0.664698 53:-0.640702 54:-0.680313 55:-0.665772 56:-0.522158 57:-0.766152 58:-0.273145 59:0.392268 60:-0.124478 61:-0.232154 62:-0.369464 63:-0.544031 64:-0.617339 65:-0.31794 66:-0.454564 67:-0.5595 68:-0.345276 69:-0.523664 70:-0.782919 71:-0.474891 72:-0.36681 73:-0.1845 74:0.109495 75:0.385653 76:-0.00638303 77:-0.653221 78:-0.69873 79:-0.756363 80:-0.643174 81:-0.577771 82:-0.441149 83:-0.648752 84:-0.727776 85:-0.608961 86:-0.495664 87:0.0706039 88:0.221555 89:0.105226 90:-0.284165 91:-0.788986 92:-0.822776 93:-0.760979 94:-0.791404 95:-0.851628 96:-0.808259 97:-0.804235 98:-0.652334 99:-0.497508 100:-0.242179 101:0.131027 102:-0.0670727 103:-0.291473 104:-0.779065 105:-0.746205 106:-0.864049 107:-0.714746 108:-0.820767 109:-0.685851 110:-0.74836 111:-0.672041 112:-0.838106 113:-0.898186 114:-0.499863 115:0.145546 116:-0.259487 117:-0.644919 118:-0.636938 119:-0.723889 120:-0.685278 121:-0.706323 122:-0.796805 123:-0.854545 124:-0.862629 125:-0.956996 126:-0.921168 127:-0.856438 128:-0.873488 129:-0.965388 
-2 -0.003745722797531249 2 2 0 0:-0.695551 1:-0.860061 2:-0.858678 3:-0.9281 4:-0.937461 5:-0.951019 6:-0.940477 7:-0.919873 8:-0.925732 9:-0.864113 10:-0.48559 11:-0.775222 12:-0.680798 13:-0.884743 14:-0.543156 15:-0.763808 16:-0.871553 17:-0.302931 18:0.2372 19:-0.848145 20:-0.750542 21:-0.681457 22:-0.791949 23:-0.328586 24:-0.230448 25:-0.586877 26:-0.0897976 27:-0.128682 28:-0.482341 29:-0.536797 30:-0.410239 31:-0.390735 32:-0.589317 33:-0.645128 34:-0.457153 35:-0.699936 36:-0.196074 37:-0.371042 38:-0.43898 39:-0.560169 40:-0.511983 41:-0.48926 42:-0.565124 43:-0.611092 44:-0.334413 45:-0.329237 46:-0.355262 47:-0.152394 48:-0.177757 49:-0.219014 50:-0.377814 51:-0.388859 52:-0.871582 53:-0.773376 54:-0.779544 55:-0.806409 56:-0.78242 57:-0.795947 58:-0.52078 59:-0.0422079 60:-0.401414 61:-0.346592 62:-0.454805 63:-0.588261 64:-0.491425 65:-0.527645 66:-0.704794 67:-0.69354 68:-0.587762 69:-0.702914 70:-0.912612 71:-0.725112 72:-0.368864 73:-0.21044 74:0.0655658 75:0.32133 76:-0.340045 77:-0.597404 78:-0.715547 79:-0.838177 80:-0.696529 81:-0.626508 82:-0.567185 83:-0.704241 84:-0.823228 85:-0.791431 86:-0.724756 87:0.124392 88:0.221971 89:0.160107 90:-0.130409 91:-0.650484 92:-0.75302 93:-0.697902 94:-0.71995 95:-0.789408 96:-0.834454 97:-0.772351 98:-0.674504 99:-0.6613 100:-0.420159 101:-0.00991941 102:-0.024847 103:-0.151036 104:-0.842402 105:-0.747507 106:-0.751272 107:-0.775895 108:-0.86275 109:-0.835804 110:-0.877871 111:-0.782826 112:-0.847855 113:-0.846649 114:-0.529296 115:0.109427 116:-0.179062 117:-0.672975 118:-0.683968 119:-0.733719 120:-0.690434 121:-0.634051 122:-0.854505 123:-0.817016 124:-0.850186 125:-0.891154 126:-0.864803 127:-0.74138 128:-0.45247 129:-0.762765 
-2 -1.825180557850482 2 0 2 0:-0.387012 1:-0.661955 2:-0.51339 3:-0.239326 4:-0.201154 5:-0.137877 6:-0.279849 7:-0.538628 8:-0.201571 9:0.0432211 10:0.355792 11:0.0682849 12:-0.544624 13:-0.676884 14:-0.158833 15:-0.0498808 16:0.155835 17:-0.199494 18:0.055939 19:0.0163886 20:0.161711 21:-0.417168 22:-0.422044 23:-0.192423 24:0.0266632 25:-0.081319 26:0.0484311 27:0.14774 28:-0.0995161 29:-0.258986 30:0.0198714 31:0.0215114 32:0.321036 33:-0.0765504 34:-0.0694911 35:-0.133558 36:-0.0393874 37:-0.193934 38:-0.114955 39:-0.350189 40:-0.301162 41:-0.265764 42:-0.340323 43:-0.255293 44:-0.188711 45:0.161258 46:0.19303 47:0.294143 48:-0.0926905 49:-0.0138566 50:-0.123463 51:-0.0855632 52:-0.678808 53:-0.567184 54:-0.684158 55:-0.74724 56:-0.552273 57:-0.640875 58:-0.325415 59:0.447134 60:0.178022 61:-0.13353 62:-0.107177 63:-0.203886 64:-0.147498 65:-0.148165 66:-0.339476 67:-0.455181 68:-0.30316 69:-0.520149 70:-0.695181 71:-0.634466 72:-0.325156 73:0.0695559 74:0.205199 75:0.73799 76:0.0654727 77:-0.264197 78:-0.569208 79:-0.708733 80:-0.614965 81:-0.467461 82:-0.303234 83:-0.514675 84:-0.644939 85:-0.752354 86:-0.638312 87:0.43475 88:0.611046 89:0.393318 90:0.0520799 91:-0.676587 92:-0.5863 93:-0.423207 94:-0.511647 95:-0.736742 96:-0.741183 97:-0.742562 98:-0.618316 99:-0.375631 100:-0.234781 101:0.235845 102:-0.0223238 103:-0.41236 104:-0.646643 105:-0.518183 106:-0.453741 107:-0.444037 108:-0.553185 109:-0.440341 110:-0.667124 111:-0.635507 112:-0.74317 113:-0.641842 114:-0.399726 115:0.094647 116:-0.259349 117:-0.248333 118:-0.253079 119:-0.472674 120:-0.0529222 121:-0.183892 122:-0.484873 123:-0.657584 124:-0.554875 125:-0.609754 126:-0.910626 127:-0.794753 128:-0.527488 129:-0.42637 
-2 -0 2 2 0 0:-0.801001 1:-0.602827 2:-0.887874 3:-0.930526 4:-0.791307 5:-0.820092 6:-0.659543 7:-0.753575 8:-0.821071 9:-0.507296 10:0.302924 11:-0.437876 12:-0.710926 13:-0.777993 14:-0.172161 15:-0.664807 16:-0.804291 17:-0.769171 18:-0.392038 19:-0.7918 20:-0.876139 21:-1 22:-0.893112 23:-0.265367 24:-0.408507 25:-0.633409 26:0.0353216 27:0.0801385 28:-0.0660054 29:-0.384922 30:-0.71672 31:-0.410166 32:-0.565045 33:-0.527309 34:-0.387269 35:-0.608682 36:-0.333248 37:-0.476551 38:-0.555393 39:-0.390175 40:-0.342115 41:-0.276365 42:-0.310079 43:-0.726372 44:-0.424514 45:-0.213665 46:-0.322843 47:-0.349997 48:-0.362222 49:-0.468603 50:-0.399147 51:-0.50761 52:-0.773646 53:-0.772299 54:-0.698925 55:-0.670519 56:-0.73621 57:-0.730875 58:-0.46675 59:0.597487 60:0.12913 61:-0.198421 62:-0.477983 63:-0.428619 64:-0.390341 65:-0.227663 66:-0.592101 67:-0.58762 68:-0.472901 69:-0.711971 70:-0.950715 71:-0.853494 72:-0.518935 73:-0.00583251 74:0.355978 75:0.379951 76:-0.0736319 77:-0.407892 78:-0.613709 79:-0.763487 80:-0.746012 81:-0.566083 82:-0.52067 83:-0.695952 84:-0.802807 85:-0.847216 86:-0.615814 87:0.654347 88:0.186643 89:-0.0686011 90:-0.145221 91:-0.638955 92:-0.606198 93:-0.54172 94:-0.478512 95:-0.620733 96:-0.77979 97:-0.837018 98:-0.830711 99:-0.685483 100:-0.496122 101:0.0836075 102:-0.396742 103:-0.456752 104:-0.424907 105:-0.555192 106:-0.713694 107:-0.517311 108:-0.551131 109:-0.671505 110:-0.748797 111:-0.877323 112:-0.946933 113:-0.993881 114:-0.712464 115:-0.463518 116:-0.497855 117:-0.298016 118:-0.696772 119:-0.575687 120:-0.620055 121:-0.384472 122:-0.516677 123:-0.651826 124:-0.80623 125:-0.810238 126:-0.840309 127:-0.944098 128:-0.964617 129:-0.735222 
-0.3388950792725577 -2 0.03593951362545034 0 1.042954941831016 0:-0.515669 1:-0.658325 2:-0.715323 3:-0.736636 4:-0.704523 5:-0.665313 6:-0.702504 7:-0.842299 8:-0.80175 9:-0.796677 10:-0.206457 11:-0.545398 12:-0.65978 13:-0.572728 14:0.0565623 15:-0.335044 16:-0.386873 17:-0.265106 18:0.300409 19:-0.375777 20:-0.588726 21:-0.736791 22:-0.773377 23:-0.16913 24:-0.12651 25:-0.437902 26:0.549769 27:0.540377 28:0.322879 29:-0.0743035 30:-0.198851 31:0.847747 32:0.759068 33:0.195468 34:0.104663 35:-0.201902 36:0.125243 37:-0.259732 38:-0.260167 39:-0.0725376 40:0.021086 41:0.0177993 42:-0.117709 43:-0.231254 44:-0.173219 45:0.234138 46:-0.0161573 47:0.0997247 48:0.0493095 49:0.0238014 50:-0.074524 51:-0.154524 52:-0.611923 53:-0.513008 54:-0.455502 55:-0.462675 56:-0.343722 57:-0.426228 58:-0.242933 59:0.661596 60:0.601954 61:-0.238519 62:-0.210073 63:-0.17206 64:-0.0814032 65:-0.223651 66:-0.354921 67:-0.423272 68:-0.248638 69:-0.62136 70:-0.838874 71:-0.727552 72:-0.418955 73:0.0200861 74:0.228265 75:0.456118 76:0.11384 77:-0.177315 78:-0.537774 79:-0.664696 80:-0.657687 81:-0.486402 82:-0.461775 83:-0.642165 84:-0.778592 85:-0.697538 86:-0.610528 87:0.784487 88:0.339 89:0.23867 90:0.0818653 91:-0.680897 92:-0.67129 93:-0.630171 94:-0.633 95:-0.615407 96:-0.759874 97:-0.755489 98:-0.694409 99:-0.627617 100:-0.368225 101:0.303139 102:-0.165052 103:-0.346917 104:-0.479428 105:-0.572101 106:-0.652921 107:-0.652753 108:-0.721404 109:-0.589878 110:-0.808576 111:-0.884795 112:-0.914271 113:-0.873009 114:-0.596441 115:-0.256315 116:-0.366574 117:-0.362413 118:-0.46321 119:-0.605123 120:-0.593642 121:-0.402694 122:-0.529666 123:-0.755464 124:-0.814005 125:-0.883406 126:-0.839081 127:-0.952118 128:-0.899601 129:-0.763178 
-2 -2 -2 0.6101185058586098 2 0:-0.305601 1:-0.664702 2:-0.760733 3:-0.681966 4:-0.797364 5:-0.81211 6:-0.746013 7:-0.792094 8:-0.687423 9:-0.371438 10:-0.174001 11:-0.383912 12:-0.586717 13:-0.514675 14:-0.0426513 15:-0.0614784 16:-0.397811 17:-0.287384 18:-0.610421 19:-0.611233 20:-0.641015 21:-0.363672 22:-0.30186 23:-0.170955 24:-0.480797 25:-0.721094 26:-0.687593 27:-0.519457 28:-0.137936 29:-0.232566 30:-0.121158 31:0.346713 32:0.477548 33:-0.216537 34:0.000489959 35:-0.468252 36:-0.305734 37:-0.4545 38:-0.536765 39:-0.77318 40:-0.860432 41:-0.835032 42:-0.815684 43:-0.658798 44:-0.0993442 45:0.129035 46:0.125145 47:0.968377 48:0.535981 49:-0.173835 50:-0.512406 51:-0.573649 52:-0.777851 53:-0.726428 54:-0.82723 55:-0.891105 56:-0.920221 57:-0.835188 58:-0.508305 59:-0.22885 60:-0.190899 61:-0.0523162 62:-0.0236495 63:-0.0430508 64:-0.212029 65:-0.524708 66:-0.665453 67:-0.613773 68:-0.489038 69:-0.339776 70:-0.545939 71:-0.691217 72:-0.660156 73:-0.542946 74:-0.408547 75:-0.233799 76:-0.249454 77:-0.474317 78:-0.60694 79:-0.801245 80:-0.71962 81:-0.705593 82:-0.492516 83:-0.483821 84:-0.484654 85:-0.555187 86:-0.470819 87:-0.310976 88:-0.400106 89:-0.57704 90:-0.560572 91:-0.734772 92:-0.783822 93:-0.797853 94:-0.780766 95:-0.837185 96:-0.901394 97:-0.868968 98:-0.761014 99:-0.419444 100:-0.463781 101:-0.147846 102:-0.719198 103:-0.875693 104:-0.831614 105:-0.689105 106:-0.789484 107:-0.811954 108:-0.841622 109:-0.859883 110:-0.793984 111:-0.916378 112:-0.965902 113:-0.880053 114:-0.836527 115:-0.926983 116:-0.917549 117:-0.437828 118:-0.584317 119:-0.778488 120:-0.669765 121:-0.593414 122:-0.909909 123:-0.821863 124:-0.89834 125:-0.88621 126:-0.843609 127:-0.740797 128:-0.823771 129:-0.926174 
-2 -0.2161411551408801 -2 2 0 0:-0.549603 1:-0.716134 2:-0.790873 3:-0.775096 4:-0.783844 5:-0.689269 6:-0.643908 7:-0.78517 8:-0.717084 9:-0.727827 10:-0.627497 11:-0.490285 12:-0.637973 13:-0.802243 14:-0.491761 15:-0.430485 16:-0.522442 17:-0.33834 18:-0.837222 19:-1 20:-0.722789 21:-0.767432 22:-0.73399 23:-0.560327 24:-0.65549 25:-0.6883 26:-0.914335 27:-0.827757 28:-0.636517 29:-0.677288 30:-0.494575 31:-0.135747 32:-0.602556 33:-0.553019 34:-0.291932 35:-0.669295 36:-0.481328 37:-0.575174 38:-0.546019 39:-0.90025 40:-0.980156 41:-0.972883 42:-0.979815 43:-0.886525 44:-0.447071 45:-0.399715 46:-0.334533 47:0.497259 48:0.0169538 49:-0.583925 50:-0.659631 51:-0.746614 52:-0.903013 53:-0.973149 54:-0.976846 55:-0.99227 56:-0.992419 57:-0.9182 58:-0.745137 59:-0.560825 60:-0.353945 61:-0.0928742 62:-0.451771 63:-0.487414 64:-0.401388 65:-0.963212 66:-0.977593 67:-0.945053 68:-0.930466 69:-0.844823 70:-0.876271 71:-0.978132 72:-0.890429 73:-0.649449 74:-0.514706 75:-0.382056 76:-0.418702 77:-0.441629 78:-0.862102 79:-0.972062 80:-0.973401 81:-0.954005 82:-0.9289 83:-0.900139 84:-0.932764 85:-0.82223 86:-0.794798 87:-0.722737 88:-0.666524 89:-0.634122 90:-0.52551 91:-0.854188 92:-0.958777 93:-0.966649 94:-0.951957 95:-1 96:-0.980583 97:-0.991953 98:-0.963541 99:-0.858451 100:-0.751038 101:-0.525683 102:-0.877873 103:-0.915779 104:-0.882185 105:-0.891527 106:-0.90142 107:-0.953443 108:-0.963759 109:-0.958632 110:-1 111:-0.971769 112:-1 113:-0.924392 114:-0.784076 115:-0.905061 116:-0.920107 117:-0.705252 118:-0.881893 119:-0.873366 120:-0.891834 121:-0.977824 122:-0.987372 123:-1 124:-0.951205 125:-0.911925 126:-0.869336 127:-0.844978 128:-0.900898 129:-0.926804 
-2 -0.4096270263152066 -2 1.012791458872605 0.0772731618350647 0:-0.106098 1:-0.443201 2:-0.568128 3:-0.499296 4:-0.478864 5:-0.400925 6:-0.34487 7:-0.79447 8:-0.802167 9:-0.758311 10:-0.607637 11:-0.711052 12:-0.761655 13:-0.554826 14:-0.416697 15:-0.220737 16:-0.50825 17:0.0519503 18:-0.12675 19:-0.434489 20:-0.501925 21:-0.382993 22:-0.340988 23:0.0144316 24:-0.442551 25:-0.586405 26:-0.972349 27:-0.769106 28:-0.593527 29:-0.474094 30:-0.339425 31:-0.152112 32:-0.287651 33:-0.272755 34:-0.0701703 35:-0.422673 36:0.0166619 37:-0.300901 38:-0.34166 39:-1 40:-0.988611 41:-0.938779 42:-0.921955 43:-0.682866 44:-0.101397 45:-0.248151 46:-0.183548 47:0.647548 48:0.361835 49:-0.129374 50:-0.435089 51:-0.567375 52:-1 53:-0.979495 54:-0.958509 55:-1 56:-0.974514 57:-0.89265 58:-0.659805 59:-0.43706 60:-0.425713 61:0.0264891 62:-0.182416 63:-0.256698 64:-0.295208 65:-0.995542 66:-0.946378 67:-0.931243 68:-0.922035 69:-0.867734 70:-0.833092 71:-0.913006 72:-0.857273 73:-0.637508 74:-0.399804 75:-0.105938 76:-0.28527 77:-0.425201 78:-0.777866 79:-0.876106 80:-0.901253 81:-0.926629 82:-0.927506 83:-0.828401 84:-0.88412 85:-0.848909 86:-0.786029 87:-0.556958 88:-0.529391 89:-0.423903 90:-0.43217 91:-0.82895 92:-0.853112 93:-0.826095 94:-0.892782 95:-0.919043 96:-0.911878 97:-0.896305 98:-0.905286 99:-0.812835 100:-0.664095 101:-0.359396 102:-0.711779 103:-0.851585 104:-0.99057 105:-0.824653 106:-0.731618 107:-0.751938 108:-0.805655 109:-0.848156 110:-0.88206 111:-0.870879 112:-0.77692 113:-0.716031 114:-0.603154 115:-0.563988 116:-0.882183 117:-0.825219 118:-0.792399 119:-0.69845 120:-0.621109 121:-0.507777 122:-0.499466 123:-0.70492 124:-0.856669 125:-0.739662 126:-0.584719 127:-0.479211 128:-0.515391 129:-0.772191 
-1.811482426166817 -0 -0.03593951362545034 2 0 0:-0.682499 1:-0.811826 2:-0.77022 3:-0.876141 4:-0.883679 5:-0.9767 6:-1 7:-0.985987 8:-0.968398 9:-0.907329 10:-0.815735 11:-0.917818 12:-0.883907 13:-0.899682 14:-0.624159 15:-0.39792 16:-0.519248 17:-0.577812 18:-0.878986 19:-0.911172 20:-0.902005 21:-0.854662 22:-0.733523 23:-0.519862 24:-0.528444 25:-0.714013 26:-1 27:-0.903567 28:-0.793738 29:-0.601917 30:-0.476716 31:-0.193182 32:-0.415727 33:-0.655355 34:-0.419205 35:-0.545168 36:-0.455187 37:-0.557433 38:-0.605388 39:-0.908574 40:-1 41:-1 42:-1 43:-0.99738 44:-0.537294 45:-0.420456 46:-0.403815 47:0.423774 48:0.240846 49:-0.499938 50:-0.767295 51:-0.773022 52:-0.999736 53:-1 54:-1 55:-0.993223 56:-1 57:-1 58:-0.778924 59:-0.558195 60:-0.625699 61:-0.302 62:-0.558072 63:-0.540361 64:-0.442656 65:-0.99918 66:-1 67:-1 68:-1 69:-1 70:-0.982203 71:-1 72:-0.957113 73:-0.743661 74:-0.58696 75:-0.395723 76:-0.532283 77:-0.531599 78:-0.874454 79:-0.962764 80:-1 81:-1 82:-1 83:-1 84:-1 85:-0.959995 86:-0.890876 87:-0.674089 88:-0.726116 89:-0.724962 90:-0.695886 91:-0.926921 92:-0.937325 93:-0.973637 94:-1 95:-0.995305 96:-1 97:-1 98:-1 99:-0.983205 100:-0.853334 101:-0.62915 102:-0.968915 103:-0.984121 104:-0.953822 105:-0.850645 106:-0.805235 107:-0.886493 108:-1 109:-1 110:-0.99409 111:-1 112:-0.990949 113:-0.885323 114:-0.919844 115:-0.965406 116:-0.952256 117:-0.843397 118:-0.877818 119:-0.867206 120:-0.858985 121:-0.819763 122:-1 123:-0.85661 124:-0.998224 125:-0.93361 126:-0.913335 127:-0.727219 128:-0.902338 129:-0.873086 
-2 -1.090749784750443 -2 2 0 0:-0.576212 1:-0.733334 2:-0.768359 3:-0.840694 4:-0.869843 5:-0.815794 6:-0.758551 7:-0.950001 8:-0.79957 9:-0.645499 10:-0.495082 11:-0.437301 12:-0.534669 13:-0.834215 14:-0.473819 15:-0.207101 16:-0.302532 17:-0.6747 18:-0.895144 19:-0.650459 20:-1 21:-0.772471 22:-0.602797 23:-0.455817 24:-0.634655 25:-0.671252 26:-0.922914 27:-1 28:-0.763266 29:-0.559934 30:-0.571007 31:-0.638868 32:-0.703081 33:-0.456705 34:-0.0430588 35:-0.433425 36:-0.511225 37:-0.386469 38:-0.360172 39:-0.894846 40:-0.952598 41:-0.937788 42:-0.942114 43:-0.985341 44:-0.528352 45:-0.661147 46:-0.165385 47:0.990687 48:0.800134 49:-0.373746 50:-0.719582 51:-0.660024 52:-0.923578 53:-0.972506 54:-0.968804 55:-0.996595 56:-0.97736 57:-0.852835 58:-0.523217 59:-0.36415 60:-0.590525 61:-0.341647 62:-0.388615 63:-0.38509 64:-0.337534 65:-0.895738 66:-0.959449 67:-0.975243 68:-0.954812 69:-0.952718 70:-0.90795 71:-0.861571 72:-0.650471 73:-0.44957 74:-0.209985 75:0.0365858 76:-0.266628 77:-0.290988 78:-0.786609 79:-0.918291 80:-0.958183 81:-0.960146 82:-0.970886 83:-0.892637 84:-0.901026 85:-0.762818 86:-0.678371 87:-0.385507 88:-0.230093 89:-0.252687 90:-0.20068 91:-0.87026 92:-0.87568 93:-0.881192 94:-0.911628 95:-0.912992 96:-0.915966 97:-0.936576 98:-0.930503 99:-0.820623 100:-0.644336 101:-0.376756 102:-0.723259 103:-0.801958 104:-0.9609 105:-0.766966 106:-0.769523 107:-0.874463 108:-0.828642 109:-0.802287 110:-0.832098 111:-0.875005 112:-0.957113 113:-0.931835 114:-0.880075 115:-0.943837 116:-0.923604 117:-0.665756 118:-0.788498 119:-0.812473 120:-0.755157 121:-0.749015 122:-0.872783 123:-0.861143 124:-0.932784 125:-0.823554 126:-0.8104 127:-0.910157 128:-0.860625 129:-0.865386 
-2 -2 -2 -2 1.48663540075283 0:-0.893 1:-0.987996 2:-0.947839 3:-0.994237 4:-0.955733 5:-0.952943 6:-0.955153 7:-0.997406 8:-1 9:-1 10:-0.890939 11:-1 12:-1 13:-0.871675 14:-0.840131 15:-0.851134 16:-0.520948 17:-0.505859 18:-0.637336 19:-0.820483 20:-0.977685 21:-0.744672 22:-0.826356 23:-0.861051 24:-1 25:-0.942653 26:-0.231705 27:-0.585827 28:-0.655942 29:-0.794721 30:-0.876685 31:-0.364713 32:-0.376972 33:-0.811299 34:-0.606467 35:-0.767366 36:-0.897759 37:-0.925602 38:-0.820375 39:0.4296 40:0.412362 41:0.0732978 42:-0.399968 43:-0.737333 44:-0.618382 45:-0.562327 46:-0.554885 47:-0.19245 48:-0.62443 49:-0.857532 50:-0.731256 51:-0.715073 52:-0.277142 53:-0.329993 54:-0.365901 55:-0.470621 56:-0.452369 57:-0.745387 58:-0.828225 59:-0.750699 60:-0.590732 61:-0.516211 62:-0.662063 63:-0.389333 64:-0.549885 65:-0.786271 66:-0.709187 67:-0.74976 68:-0.590768 69:-0.507851 70:-0.584066 71:-0.613452 72:-0.812649 73:-0.664754 74:-0.487552 75:-0.597803 76:-0.409913 77:-0.339637 78:-0.752791 79:-0.814614 80:-0.776728 81:-0.758196 82:-0.698701 83:-0.577124 84:-0.62822 85:-0.570334 86:-0.544437 87:-0.371988 88:-0.747642 89:-0.424471 90:-0.15243 91:-0.509373 92:-0.428487 93:-0.547174 94:-0.524284 95:-0.607055 96:-0.717702 97:-0.827662 98:-0.900429 99:-0.818656 100:-0.745344 101:-0.716297 102:-0.672912 103:-0.798392 104:0.0317599 105:0.111999 106:-0.314187 107:-0.229273 108:-0.680177 109:-0.606938 110:-0.748789 111:-0.849765 112:-0.904821 113:-0.855611 114:-0.60512 115:-0.803265 116:-0.902611 117:-0.350262 118:-0.18895 119:-0.246103 120:-0.00368749 121:-0.21891 122:0.28915 123:-0.415559 124:-0.734049 125:-0.777788 126:-0.650587 127:-0.781073 128:-0.714875 129:-0.808808 
-2 -0 -2 -2 0.2750063641474424 0:-0.920225 1:-0.739307 2:-0.889841 3:-0.841818 4:-0.907656 5:-0.697139 6:-0.682317 7:-0.871356 8:-0.913018 9:-0.816846 10:-0.764756 11:-0.899597 12:-0.937108 13:-0.728486 14:-0.700513 15:-0.697288 16:-0.476552 17:-0.353083 18:-0.596447 19:-0.467793 20:-0.517725 21:-0.707997 22:-0.785614 23:-0.728189 24:-0.92497 25:-0.931722 26:-0.267194 27:-0.714386 28:-0.89589 29:-0.858033 30:-0.787943 31:-0.515564 32:-0.567959 33:-0.664258 34:-0.830613 35:-0.882595 36:-0.889981 37:-0.923575 38:-0.950146 39:0.313925 40:0.236899 41:0.0697189 42:-0.445633 43:-0.819455 44:-0.867507 45:-0.848134 46:-0.894562 47:-0.851598 48:-0.872321 49:-0.905122 50:-0.887326 51:-0.956245 52:-0.533685 53:-0.432237 54:-0.450456 55:-0.46738 56:-0.389089 57:-0.794664 58:-0.958046 59:-0.942347 60:-0.879114 61:-0.86796 62:-0.725704 63:-0.809554 64:-0.875451 65:-0.894942 66:-0.835106 67:-0.835644 68:-0.723678 69:-0.657239 70:-0.766765 71:-0.854452 72:-0.947475 73:-0.903814 74:-0.786764 75:-0.848963 76:-0.90353 77:-0.850706 78:-0.896278 79:-0.962906 80:-0.903435 81:-0.839097 82:-0.805322 83:-0.739888 84:-0.818541 85:-0.760652 86:-0.842793 87:-0.707972 88:-0.897153 89:-0.851971 90:-0.873162 91:-0.893715 92:-0.913261 93:-0.910127 94:-0.860473 95:-0.834724 96:-0.822472 97:-0.900535 98:-0.957165 99:-0.971778 100:-0.857268 101:-0.655147 102:-0.853179 103:-0.960468 104:-0.95856 105:-0.830595 106:-0.778795 107:-0.869306 108:-0.913255 109:-0.71979 110:-0.749159 111:-0.857626 112:-0.851493 113:-0.855703 114:-0.779486 115:-0.612757 116:-0.843747 117:-0.778279 118:-0.664174 119:-0.855425 120:-0.6653 121:-0.719698 122:-0.906158 123:-0.6569 124:-0.767212 125:-0.827119 126:-0.59403 127:-0.741399 128:-0.679074 129:-0.643475 
-0 -1.675976238639362 -0 -0 0.04678680757457877 0:-0.93278 1:-0.910558 2:-0.828169 3:-0.908441 4:-0.94831 5:-0.906157 6:-0.978432 7:-1 8:-0.99836 9:-0.978671 10:-1 11:-0.864361 12:-0.883033 13:-0.776773 14:-0.75884 15:-0.902819 16:-0.94714 17:-0.661251 18:-0.875606 19:-0.821172 20:-0.728215 21:-0.787489 22:-1 23:-1 24:-0.997327 25:-1 26:-0.0192899 27:-0.637939 28:-0.835969 29:-0.870257 30:-0.877186 31:-0.910378 32:-1 33:-1 34:-0.901477 35:-0.961931 36:-1 37:-1 38:-1 39:0.822277 40:0.728161 41:0.433088 42:-0.178432 43:-0.729652 44:-0.942727 45:-1 46:-0.973226 47:-0.793111 48:-0.908674 49:-0.989596 50:-1 51:-0.998998 52:-0.31749 53:-0.264861 54:-0.151008 55:-0.224054 56:-0.240228 57:-0.607237 58:-0.857729 59:-0.868923 60:-0.895368 61:-0.836139 62:-0.961191 63:-0.917714 64:-0.925175 65:-0.872258 66:-0.783324 67:-0.803687 68:-0.618261 69:-0.543701 70:-0.588393 71:-0.719883 72:-0.795982 73:-0.776289 74:-0.748776 75:-0.900367 76:-0.862103 77:-0.808381 78:-1 79:-1 80:-0.913766 81:-0.819478 82:-0.71443 83:-0.697725 84:-0.789903 85:-0.670723 86:-0.712179 87:-0.486452 88:-0.914548 89:-0.95755 90:-0.715981 91:-0.950562 92:-0.988489 93:-1 94:-0.93907 95:-0.895565 96:-0.865096 97:-0.872982 98:-0.933259 99:-0.890931 100:-0.822546 101:-0.788318 102:-0.984364 103:-0.950601 104:-0.954654 105:-0.961717 106:-1 107:-0.972812 108:-0.988264 109:-0.818695 110:-0.865323 111:-0.929207 112:-0.990783 113:-0.953106 114:-0.884214 115:-0.903671 116:-0.893458 117:-1 118:-0.937901 119:-1 120:-1 121:-0.891117 122:-0.990597 123:-0.910433 124:-0.927364 125:-0.925704 126:-0.853659 127:-0.885085 128:-0.849087 129:-1 
-1.210781680447607 -0 -0 -1.622909964731215 0 0:-1 1:-1 2:-1 3:-1 4:-0.995873 5:-0.894735 6:-0.765888 7:-0.902421 8:-0.743278 9:-0.927575 10:-0.859492 11:-0.973487 12:-0.968354 13:-0.977926 14:-0.818681 15:-1 16:-0.946798 17:-0.638187 18:-0.710623 19:-0.581783 20:-0.478791 21:-0.719715 22:-0.816664 23:-0.745184 24:-0.845911 25:-0.921959 26:-0.42909 27:-0.792935 28:-1 29:-1 30:-1 31:-1 32:-0.961415 33:-0.93896 34:-1 35:-1 36:-0.915023 37:-0.8331 38:-0.926715 39:0.00402001 40:0.0969262 41:-0.199129 42:-0.545521 43:-1 44:-1 45:-0.95516 46:-1 47:-1 48:-1 49:-1 50:-0.962862 51:-1 52:-0.696728 53:-0.597398 54:-0.643443 55:-0.593863 56:-0.686764 57:-0.98068 58:-1 59:-1 60:-1 61:-1 62:-1 63:-1 64:-1 65:-0.947905 66:-0.864396 67:-0.886917 68:-0.818506 69:-0.799377 70:-0.881155 71:-0.91578 72:-1 73:-1 74:-1 75:-0.96877 76:-1 77:-1 78:-0.948656 79:-0.973099 80:-0.921784 81:-0.854776 82:-0.854195 83:-0.881211 84:-0.90472 85:-0.879891 86:-0.965245 87:-1 88:-1 89:-0.961107 90:-1 91:-0.918736 92:-0.940755 93:-0.942515 94:-0.8669 95:-0.894448 96:-0.889514 97:-0.913283 98:-0.961261 99:-1 100:-0.898382 101:-0.849352 102:-0.960537 103:-1 104:-1 105:-0.983764 106:-0.946656 107:-0.937275 108:-0.916758 109:-0.879322 110:-0.895205 111:-0.906809 112:-0.966971 113:-1 114:-1 115:-1 116:-1 117:-0.941103 118:-1 119:-0.912286 120:-0.951503 121:-0.953547 122:-0.873765 123:-0.870434 124:-0.945898 125:-1 126:-1 127:-1 128:-0.959391 129:-0.965712 
-2 -0 -2 -2 0 0:-0.971559 1:-0.79361 2:-0.810807 3:-0.886077 4:-0.92046 5:-0.87822 6:-0.724877 7:-0.880561 8:-0.794955 9:-0.796634 10:-0.916354 11:-0.854999 12:-0.870833 13:-0.792199 14:-0.670306 15:-0.706326 16:-0.880755 17:-0.766728 18:-0.899818 19:-0.754701 20:-0.664504 21:-0.716937 22:-0.825085 23:-0.834774 24:-0.871342 25:-0.892964 26:-0.200457 27:-0.601342 28:-0.839316 29:-0.816008 30:-0.87681 31:-0.757954 32:-0.967962 33:-0.925317 34:-0.82499 35:-0.912551 36:-0.866683 37:-0.784276 38:-0.836145 39:0.494167 40:0.36161 41:0.0517149 42:-0.427162 43:-0.860088 44:-0.894932 45:-0.803131 46:-0.826998 47:-0.678195 48:-0.77901 49:-0.889474 50:-0.802703 51:-0.730543 52:-0.642641 53:-0.550775 54:-0.485519 55:-0.53832 56:-0.56446 57:-0.820923 58:-0.93355 59:-0.883342 60:-0.827516 61:-0.791799 62:-0.823122 63:-0.743437 64:-0.729327 65:-0.983645 66:-0.903016 67:-0.912717 68:-0.85455 69:-0.833551 70:-0.8943 71:-0.936 72:-0.941427 73:-0.862934 74:-0.851992 75:-1 76:-0.949619 77:-0.908007 78:-0.936079 79:-0.961132 80:-0.914568 81:-0.874727 82:-0.874492 83:-0.867015 84:-0.90284 85:-0.907442 86:-1 87:-0.953342 88:-0.943267 89:-1 90:-0.892928 91:-0.890744 92:-0.910284 93:-0.872288 94:-0.843367 95:-0.891567 96:-0.851056 97:-0.916619 98:-0.993013 99:-0.987461 100:-1 101:-1 102:-1 103:-0.902384 104:-0.945331 105:-0.921778 106:-0.89268 107:-0.885005 108:-0.864829 109:-0.727202 110:-0.850468 111:-0.894237 112:-0.947829 113:-0.955591 114:-0.96063 115:-0.842409 116:-0.820445 117:-0.728081 118:-0.749356 119:-0.913145 120:-0.847804 121:-0.871963 122:-0.855611 123:-0.87082 124:-0.916191 125:-0.910038 126:-0.906487 127:-0.929071 128:-0.944155 129:-0.891384 
-0.1801822699292857 -1.054951356263395 -0.3914421870117979 -0.478176380407579 -0.225771938771885 0:1 1:0.66532 2:-0.0236209 3:0.0856749 4:-0.0951376 5:-0.103211 6:-0.181809 7:-0.302095 8:-0.259172 9:0.249808 10:0.52616 11:0.169614 12:0.0312099 13:1 14:1 15:1 16:1 17:0.717307 18:0.327124 19:0.704016 20:0.371245 21:0.461018 22:0.158014 23:0.547497 24:0.906419 25:1 26:0.793394 27:0.407585 28:0.20929 29:0.612914 30:0.665182 31:0.530028 32:0.884779 33:0.30075 34:0.715959 35:0.539648 36:0.382785 37:0.269529 38:0.547778 39:0.671146 40:0.75435 41:0.540217 42:0.691782 43:0.819608 44:0.961984 45:0.815399 46:0.563484 47:0.718904 48:0.0408533 49:0.180262 50:0.934648 51:1 52:0.553488 53:0.565268 54:0.245248 55:0.437555 56:1 57:0.333312 58:0.131556 59:0.366522 60:0.828304 61:0.364496 62:0.323081 63:1 64:0.723839 65:0.540789 66:1 67:-0.144306 68:0.188282 69:1 70:0.7698 71:0.0841373 72:-0.341739 73:0.154626 74:0.111788 75:0.160872 76:0.685546 77:0.993812 78:0.20696 79:0.627649 80:0.813877 81:0.893123 82:1 83:0.937877 84:-0.114407 85:-0.211405 86:-0.0467638 87:-0.0551292 88:-0.244838 89:-0.152564 90:-0.00576966 91:-0.149111 92:-0.396978 93:-0.522517 94:-0.0663429 95:0.501473 96:0.656955 97:0.111048 98:-0.0697103 99:0.137051 100:-0.123801 101:-0.254465 102:-0.505109 103:-0.394765 104:-0.405559 105:-0.634458 106:-0.570623 107:-0.537787 108:-0.552313 109:-0.39806 110:-0.509017 111:-0.300611 112:-0.0624176 113:-0.251361 114:-0.405238 115:-0.332148 116:-0.42501 117:-0.3096 118:-0.484005 119:-0.507359 120:-0.538273 121:-0.155373 122:-0.495414 123:-0.497903 124:-0.631041 125:-0.487656 126:-0.406975 127:-0.606365 128:-0.0937509 129:-0.191685 
-0 -1.408748507832983 -0 -0 -0 0:0.659996 1:0.526581 2:-0.00844393 3:0.196813 4:0.349633 5:0.0642768 6:0.302178 7:0.297175 8:0.412642 9:0.667084 10:0.460438 11:0.100749 12:0.609834 13:0.300214 14:0.210507 15:0.557969 16:0.665656 17:-0.0364488 18:-0.405178 19:0.182447 20:0.173042 21:0.303996 22:0.398605 23:0.478622 24:0.368418 25:0.906858 26:0.307989 27:0.433209 28:0.346111 29:0.50889 30:0.771939 31:0.423166 32:-0.184198 33:-0.0747187 34:0.539543 35:0.41995 36:0.446533 37:-0.110615 38:0.580743 39:0.662705 40:0.790972 41:0.642844 42:0.87608 43:1 44:0.79808 45:0.762699 46:0.302524 47:0.434194 48:0.289487 49:0.44704 50:0.262817 51:0.75079 52:0.338024 53:0.255409 54:0.78045 55:0.619385 56:0.936925 57:0.625143 58:0.503116 59:0.359778 60:0.326291 61:0.116408 62:0.725392 63:0.97943 64:0.800067 65:0.37891 66:0.47308 67:0.11278 68:0.51743 69:0.743433 70:0.753842 71:0.582219 72:0.22099 73:-0.121513 74:0.195634 75:0.718359 76:0.803503 77:0.491255 78:0.352956 79:0.80893 80:0.922096 81:0.747567 82:0.832035 83:0.649066 84:0.617065 85:0.684671 86:-0.013609 87:0.550894 88:0.217466 89:0.476103 90:0.616577 91:0.171929 92:0.0918919 93:0.0797228 94:0.42352 95:0.653652 96:0.639399 97:0.125879 98:0.447194 99:0.622734 100:0.592403 101:0.983832 102:-0.141178 103:0.286049 104:0.346468 105:-0.00949537 106:-0.216259 107:-0.2246 108:0.0291402 109:0.18917 110:-0.0809886 111:-0.256944 112:-0.130879 113:-0.0157077 114:-0.102682 115:-0.17545 116:-0.176637 117:-0.204901 118:-0.159769 119:-0.583063 120:-0.414539 121:-0.13488 122:0.17182 123:-0.43901 124:-0.466806 125:0.176989 126:0.126502 127:-0.239342 128:0.234542 129:0.082632 
-1.627529418082576 -0.9523100407128533 -1.837552188644772 -1.176608016116917 -1.14895664967959 0:-0.0400793 1:0.365112 2:-0.138795 3:-0.0216484 4:0.279093 5:0.22234 6:0.02608 7:0.130398 8:0.564212 9:0.674999 10:1 11:0.894419 12:0.432655 13:0.414449 14:0.0442453 15:-0.0651687 16:0.355635 17:-0.00445107 18:-0.0446889 19:0.265826 20:-0.0218793 21:-0.22373 22:-0.0460943 23:0.341185 24:0.494571 25:0.206942 26:0.917987 27:0.97913 28:1 29:0.598881 30:0.266528 31:0.170984 32:-0.111479 33:-0.167039 34:0.288355 35:0.428565 36:0.139227 37:-0.0351116 38:0.630712 39:0.76052 40:1 41:0.963781 42:0.814051 43:0.75226 44:0.549781 45:0.621555 46:0.494039 47:0.135606 48:0.121264 49:0.223461 50:0.251436 51:0.460122 52:-0.12128 53:-0.101272 54:0.202703 55:0.50583 56:0.855012 57:0.206665 58:0.178457 59:0.378498 60:0.132819 61:0.275497 62:0.954404 63:0.86301 64:0.538587 65:0.124517 66:0.234057 67:-0.378807 68:-0.220765 69:0.222331 70:-0.0863207 71:-0.289121 72:-0.217732 73:-0.0197074 74:0.283603 75:0.932281 76:0.511457 77:0.338698 78:0.162983 79:0.557359 80:0.810199 81:0.538582 82:0.499784 83:0.178567 84:0.0593847 85:-0.109532 86:-0.542379 87:-0.131766 88:-0.280157 89:-0.0335593 90:-0.213741 91:0.026738 92:0.00457803 93:-0.0272345 94:0.46408 95:0.672749 96:0.467072 97:0.586605 98:0.316206 99:-0.4207 100:-0.49054 101:-0.129153 102:-0.296776 103:-0.272756 104:-0.0713664 105:-0.369287 106:-0.360447 107:-0.283286 108:-0.332924 109:-0.0556936 110:-0.0476847 111:0.29538 112:-0.201043 113:-0.571588 114:-0.531726 115:-0.506672 116:-0.421234 117:-0.457986 118:-0.431136 119:-0.712842 120:-0.592517 121:-0.461754 122:-0.382476 123:-0.485717 124:-0.415132 125:-0.238888 126:-0.238793 127:-0.571429 128:-0.102526 129:-0.455078 
-0.06844526880042952 -1.018787458172385 -0.6463840465835158 -0.2020820665735257 -0.1001046436191114 0:0.467397 1:0.172959 2:-0.211301 3:0.00304745 4:0.028505 5:-0.0247829 6:0.152302 7:0.0109962 8:0.261022 9:0.58844 10:0.629242 11:0.578495 12:0.36603 13:0.245197 14:0.702995 15:0.0401328 16:0.780067 17:-0.147857 18:0.213598 19:0.755273 20:-0.0185212 21:-0.310628 22:-0.120666 23:0.386752 24:0.439763 25:0.0626955 26:1 27:1 28:0.683301 29:0.918558 30:0.210958 31:0.269334 32:-0.287218 33:-0.0336218 34:0.930314 35:0.939279 36:0.675544 37:0.309185 38:0.322309 39:0.909689 40:0.850761 41:0.590909 42:0.456896 43:0.32721 44:0.437559 45:0.903029 46:0.154126 47:0.794097 48:0.132351 49:-0.0213531 50:0.445991 51:0.712334 52:0.233813 53:0.306834 54:0.286677 55:0.269812 56:0.586128 57:0.190831 58:0.133975 59:0.824125 60:1 61:0.231336 62:0.275657 63:0.643062 64:1 65:0.683257 66:0.597482 67:-0.0982643 68:-0.00204101 69:0.089037 70:0.124172 71:0.0854269 72:-0.0181396 73:0.101775 74:-0.134702 75:0.45158 76:0.189539 77:0.560506 78:0.356652 79:0.59932 80:0.647312 81:0.515879 82:0.716263 83:0.840628 84:0.669439 85:0.122746 86:-0.182639 87:-0.309245 88:-0.0239733 89:0.213192 90:0.537328 91:-0.0687053 92:0.0115169 93:-0.102138 94:0.0842475 95:0.441108 96:0.414909 97:0.408481 98:0.108857 99:0.0452243 100:-0.341189 101:-0.104583 102:-0.127123 103:0.399711 104:-0.112791 105:-0.502055 106:-0.295189 107:-0.378912 108:-0.243022 109:-0.304419 110:-0.00980689 111:0.261506 112:0.165527 113:-0.159133 114:-0.32189 115:-0.393067 116:-0.402995 117:-0.57594 118:-0.798534 119:-0.821553 120:-0.508297 121:-0.390185 122:-0.36146 123:-0.279706 124:-0.24323 125:-0.218034 126:-0.264203 127:-0.412362 128:-0.146992 129:-0.316267 
-0.3287075393545928 -0.0619908884124598 -0.1675765195909307 -0.2204066987370434 -0.3335953404042646 0:0.566634 1:1 2:1 3:1 4:1 5:1 6:1 7:1 8:1 9:1 10:0.987485 11:1 12:1 13:0.423861 14:0.253785 15:0.740974 16:0.553624 17:1 18:1 19:1 20:1 21:1 22:1 23:1 24:1 25:0.915019 26:0.698797 27:0.653132 28:0.181838 29:0.279452 30:0.389875 31:0.963447 32:0.0620228 33:1 34:1 35:1 36:1 37:1 38:1 39:1 40:0.940666 41:0.425336 42:0.257132 43:0.663546 44:0.735481 45:0.856255 46:1 47:1 48:0.210342 49:0.451001 50:0.696781 51:0.753848 52:0.462199 53:0.452277 54:0.504523 55:0.656369 56:0.655039 57:0.446288 58:0.0968011 59:0.0731855 60:0.356402 61:0.678199 62:0.905344 63:0.943619 64:0.765987 65:1 66:0.542586 67:-0.0188403 68:0.301837 69:0.278039 70:0.865796 71:0.171037 72:0.28045 73:0.571519 74:0.614637 75:1 76:1 77:1 78:1 79:1 80:1 81:1 82:0.697606 83:1 84:1 85:1 86:1 87:1 88:0.394504 89:1 90:1 91:1 92:1 93:1 94:1 95:1 96:1 97:1 98:1 99:1 100:1 101:1 102:1 103:1 104:1 105:1 106:1 107:1 108:1 109:1 110:1 111:1 112:1 113:1 114:1 115:0.734476 116:0.992679 117:1 118:1 119:1 120:1 121:1 122:1 123:1 124:1 125:1 126:1 127:1 128:1 129:1 
